digraph Tree {
node [shape=box] ;
0 [label="X[2] <= 2.45\ngini = 0.662\nsamples = 90\nvalue = [25, 33, 32]"] ;
1 [label="gini = 0.0\nsamples = 25\nvalue = [25, 0, 0]"] ;
0 -> 1 [labeldistance=2.5, labelangle=45, headlabel="True"] ;
2 [label="X[3] <= 1.75\ngini = 0.4999\nsamples = 65\nvalue = [0, 33, 32]"] ;
0 -> 2 [labeldistance=2.5, labelangle=-45, headlabel="False"] ;
3 [label="X[2] <= 5.3\ngini = 0.1567\nsamples = 35\nvalue = [0, 32, 3]"] ;
2 -> 3 ;
4 [label="gini = 0.0588\nsamples = 33\nvalue = [0, 32, 1]"] ;
3 -> 4 ;
5 [label="gini = 0.0\nsamples = 2\nvalue = [0, 0, 2]"] ;
3 -> 5 ;
6 [label="X[2] <= 4.85\ngini = 0.0644\nsamples = 30\nvalue = [0, 1, 29]"] ;
2 -> 6 ;
7 [label="gini = 0.4444\nsamples = 3\nvalue = [0, 1, 2]"] ;
6 -> 7 ;
8 [label="gini = 0.0\nsamples = 27\nvalue = [0, 0, 27]"] ;
6 -> 8 ;
}